FANN_FLO_2.1
num_layers=3
learning_rate=0.300000
connection_rate=1.000000
network_type=0
learning_momentum=0.000000
training_algorithm=2
train_error_function=1
train_stop_function=0
cascade_output_change_fraction=0.010000
quickprop_decay=-0.000100
quickprop_mu=1.750000
rprop_increase_factor=1.200000
rprop_decrease_factor=0.500000
rprop_delta_min=0.000000
rprop_delta_max=50.000000
rprop_delta_zero=0.100000
cascade_output_stagnation_epochs=12
cascade_candidate_change_fraction=0.010000
cascade_candidate_stagnation_epochs=12
cascade_max_out_epochs=150
cascade_min_out_epochs=50
cascade_max_cand_epochs=150
cascade_min_cand_epochs=50
cascade_num_candidate_groups=2
bit_fail_limit=3.49999999999999977796e-01
cascade_candidate_limit=1.00000000000000000000e+03
cascade_weight_multiplier=4.00000000000000022204e-01
cascade_activation_functions_count=10
cascade_activation_functions=3 5 7 8 10 11 14 15 16 17 
cascade_activation_steepnesses_count=4
cascade_activation_steepnesses=2.50000000000000000000e-01 5.00000000000000000000e-01 7.50000000000000000000e-01 1.00000000000000000000e+00 
layer_sizes=5 5 2 
scale_included=0
neurons (num_inputs, activation_function, activation_steepness)=(0, 0, 0.00000000000000000000e+00) (0, 0, 0.00000000000000000000e+00) (0, 0, 0.00000000000000000000e+00) (0, 0, 0.00000000000000000000e+00) (0, 0, 0.00000000000000000000e+00) (5, 4, 5.00000000000000000000e-01) (5, 4, 5.00000000000000000000e-01) (5, 4, 5.00000000000000000000e-01) (5, 4, 5.00000000000000000000e-01) (0, 0, 0.00000000000000000000e+00) (5, 5, 5.00000000000000000000e-01) (0, 5, 0.00000000000000000000e+00) 
connections (connected_to_neuron, weight)=(0, 2.06335340042148196460e+00) (1, 6.92288131639435588838e-01) (2, 3.35677049507051017407e-01) (3, -1.05128078812006184317e-01) (4, 2.07480255773515365192e+00) (0, -1.27613054204324294361e+00) (1, 6.66586464267723499688e+00) (2, -4.23700135444543857233e+00) (3, -4.10225777408642966471e-01) (4, -1.39910513174289574678e+00) (0, 1.45292728983466035153e+00) (1, 8.91796117438222513130e-01) (2, 1.24109099448120163700e+00) (3, 2.88559488246699469283e-01) (4, -7.49458873722429141928e-01) (0, -1.61236576961545163833e+00) (1, 6.75013642246330558550e+00) (2, -4.53391284798244598164e+00) (3, 1.81434083115901056971e+00) (4, -1.51720033222013062080e+00) (5, -8.46716238640388585424e-01) (6, 6.11895358986942206059e+00) (7, -8.64911929287509151365e-01) (8, 5.98767326943056676924e+00) (9, -1.63273264574604137778e+00) 
