FANN_FLO_2.1
num_layers=3
learning_rate=0.700000
connection_rate=1.000000
network_type=0
learning_momentum=0.000000
training_algorithm=2
train_error_function=1
train_stop_function=0
cascade_output_change_fraction=0.010000
quickprop_decay=-0.000100
quickprop_mu=1.750000
rprop_increase_factor=1.200000
rprop_decrease_factor=0.500000
rprop_delta_min=0.000000
rprop_delta_max=50.000000
rprop_delta_zero=0.100000
cascade_output_stagnation_epochs=12
cascade_candidate_change_fraction=0.010000
cascade_candidate_stagnation_epochs=12
cascade_max_out_epochs=150
cascade_min_out_epochs=50
cascade_max_cand_epochs=150
cascade_min_cand_epochs=50
cascade_num_candidate_groups=2
bit_fail_limit=3.49999999999999977796e-01
cascade_candidate_limit=1.00000000000000000000e+03
cascade_weight_multiplier=4.00000000000000022204e-01
cascade_activation_functions_count=10
cascade_activation_functions=3 5 7 8 10 11 14 15 16 17 
cascade_activation_steepnesses_count=4
cascade_activation_steepnesses=2.50000000000000000000e-01 5.00000000000000000000e-01 7.50000000000000000000e-01 1.00000000000000000000e+00 
layer_sizes=5 5 2 
scale_included=0
neurons (num_inputs, activation_function, activation_steepness)=(0, 0, 0.00000000000000000000e+00) (0, 0, 0.00000000000000000000e+00) (0, 0, 0.00000000000000000000e+00) (0, 0, 0.00000000000000000000e+00) (0, 0, 0.00000000000000000000e+00) (5, 4, 5.00000000000000000000e-01) (5, 4, 5.00000000000000000000e-01) (5, 4, 5.00000000000000000000e-01) (5, 4, 5.00000000000000000000e-01) (0, 0, 0.00000000000000000000e+00) (5, 5, 5.00000000000000000000e-01) (0, 5, 0.00000000000000000000e+00) 
connections (connected_to_neuron, weight)=(0, -9.75193061463061838801e-01) (1, 5.19648844773739337910e+00) (2, -4.00071728580515095786e+00) (3, 8.82974377904304552622e-01) (4, -1.03376039300933908471e+00) (0, 1.44153865544705506174e+00) (1, 4.74816178897475005272e+00) (2, 2.46625608480566649305e+00) (3, 1.94057221741920749025e+00) (4, 1.45946132927717053818e+00) (0, 1.94144359067603478053e+00) (1, 4.80122413793332203369e+00) (2, 2.41058903822453451937e+00) (3, 2.02817902619582968171e+00) (4, 1.37863059796097919829e+00) (0, -9.99041478431870300092e-01) (1, 5.30340594525904585055e+00) (2, -3.79297126053552569047e+00) (3, -1.56813275540169869138e-02) (4, -7.39527318128430755095e-01) (5, 5.19050707166108526991e+00) (6, -7.29953295499362386778e-01) (7, -7.20669565568197612038e-01) (8, 4.82537548957519835113e+00) (9, -1.33402566902980290742e+00) 
