FANN_FLO_2.1
num_layers=3
learning_rate=0.700000
connection_rate=1.000000
network_type=0
learning_momentum=0.000000
training_algorithm=2
train_error_function=1
train_stop_function=0
cascade_output_change_fraction=0.010000
quickprop_decay=-0.000100
quickprop_mu=1.750000
rprop_increase_factor=1.200000
rprop_decrease_factor=0.500000
rprop_delta_min=0.000000
rprop_delta_max=50.000000
rprop_delta_zero=0.100000
cascade_output_stagnation_epochs=12
cascade_candidate_change_fraction=0.010000
cascade_candidate_stagnation_epochs=12
cascade_max_out_epochs=150
cascade_min_out_epochs=50
cascade_max_cand_epochs=150
cascade_min_cand_epochs=50
cascade_num_candidate_groups=2
bit_fail_limit=3.49999999999999977796e-01
cascade_candidate_limit=1.00000000000000000000e+03
cascade_weight_multiplier=4.00000000000000022204e-01
cascade_activation_functions_count=10
cascade_activation_functions=3 5 7 8 10 11 14 15 16 17 
cascade_activation_steepnesses_count=4
cascade_activation_steepnesses=2.50000000000000000000e-01 5.00000000000000000000e-01 7.50000000000000000000e-01 1.00000000000000000000e+00 
layer_sizes=5 5 2 
scale_included=0
neurons (num_inputs, activation_function, activation_steepness)=(0, 0, 0.00000000000000000000e+00) (0, 0, 0.00000000000000000000e+00) (0, 0, 0.00000000000000000000e+00) (0, 0, 0.00000000000000000000e+00) (0, 0, 0.00000000000000000000e+00) (5, 4, 5.00000000000000000000e-01) (5, 4, 5.00000000000000000000e-01) (5, 4, 5.00000000000000000000e-01) (5, 4, 5.00000000000000000000e-01) (0, 0, 0.00000000000000000000e+00) (5, 5, 5.00000000000000000000e-01) (0, 5, 0.00000000000000000000e+00) 
connections (connected_to_neuron, weight)=(0, 1.57081712378450188972e+00) (1, 8.17524766870937646956e+00) (2, -7.08131137638638108456e+00) (3, -4.32614723132291700836e+00) (4, 1.84258607560618870025e+00) (0, -1.46808435706172932811e+01) (1, 1.24346445741823630193e+00) (2, 7.02299578599368690135e+00) (3, 4.68540447068930987484e+00) (4, -2.19152691696242607478e+00) (0, -3.07191346926751185364e+00) (1, -2.10511785275810536788e+00) (2, 2.44126045537677072161e+00) (3, -2.01428209869665097997e+00) (4, -2.24456614774806467727e-01) (0, 1.68289258692893795022e+00) (1, 4.82883504439379063200e+00) (2, -6.10615933209337491405e+00) (3, 1.61391700191683429289e+00) (4, -1.81786424475896457587e+00) (5, 6.29846037501300859418e+00) (6, 2.96020316963819425382e+01) (7, 5.49829528710807835523e+00) (8, 3.75298475864599145879e+00) (9, -6.22086914167878468618e+00) 
