FANN_FLO_2.1
num_layers=3
learning_rate=0.700000
connection_rate=1.000000
network_type=0
learning_momentum=0.000000
training_algorithm=2
train_error_function=1
train_stop_function=0
cascade_output_change_fraction=0.010000
quickprop_decay=-0.000100
quickprop_mu=1.750000
rprop_increase_factor=1.200000
rprop_decrease_factor=0.500000
rprop_delta_min=0.000000
rprop_delta_max=50.000000
rprop_delta_zero=0.100000
cascade_output_stagnation_epochs=12
cascade_candidate_change_fraction=0.010000
cascade_candidate_stagnation_epochs=12
cascade_max_out_epochs=150
cascade_min_out_epochs=50
cascade_max_cand_epochs=150
cascade_min_cand_epochs=50
cascade_num_candidate_groups=2
bit_fail_limit=3.49999999999999977796e-01
cascade_candidate_limit=1.00000000000000000000e+03
cascade_weight_multiplier=4.00000000000000022204e-01
cascade_activation_functions_count=10
cascade_activation_functions=3 5 7 8 10 11 14 15 16 17 
cascade_activation_steepnesses_count=4
cascade_activation_steepnesses=2.50000000000000000000e-01 5.00000000000000000000e-01 7.50000000000000000000e-01 1.00000000000000000000e+00 
layer_sizes=5 5 2 
scale_included=0
neurons (num_inputs, activation_function, activation_steepness)=(0, 0, 0.00000000000000000000e+00) (0, 0, 0.00000000000000000000e+00) (0, 0, 0.00000000000000000000e+00) (0, 0, 0.00000000000000000000e+00) (0, 0, 0.00000000000000000000e+00) (5, 4, 5.00000000000000000000e-01) (5, 4, 5.00000000000000000000e-01) (5, 4, 5.00000000000000000000e-01) (5, 4, 5.00000000000000000000e-01) (0, 0, 0.00000000000000000000e+00) (5, 6, 5.00000000000000000000e-01) (0, 6, 0.00000000000000000000e+00) 
connections (connected_to_neuron, weight)=(0, 1.84716212201614249366e+00) (1, 7.47743539920394439946e+00) (2, 3.93735213016112206574e+00) (3, -1.12323503174892476153e+01) (4, -7.34763610075570117175e-01) (0, -7.11114796580085339883e+00) (1, -4.69459045428430155056e+00) (2, 5.00222358868710159641e+00) (3, -7.49820955457742677197e+00) (4, 5.20216360466475880031e+00) (0, 2.48533769859802777802e+00) (1, 5.25285529635151604566e+00) (2, 3.63132561500574213564e-01) (3, -1.16141244561416083769e+01) (4, 1.92179294185466476019e-01) (0, -2.88089183070391108288e+00) (1, 2.33258552636494549404e+01) (2, 2.12831820275597713987e+01) (3, -4.64502944497586014450e+01) (4, -1.11069208254153650728e+00) (5, 1.22091851405046991630e+01) (6, 2.36134949414948600577e+01) (7, 1.36316392979270659680e+01) (8, -2.79430489338007639333e+01) (9, -9.06137882622400780974e+00) 
