FANN_FLO_2.1
num_layers=3
learning_rate=0.700000
connection_rate=1.000000
network_type=0
learning_momentum=0.000000
training_algorithm=2
train_error_function=1
train_stop_function=0
cascade_output_change_fraction=0.010000
quickprop_decay=-0.000100
quickprop_mu=1.750000
rprop_increase_factor=1.200000
rprop_decrease_factor=0.500000
rprop_delta_min=0.000000
rprop_delta_max=50.000000
rprop_delta_zero=0.100000
cascade_output_stagnation_epochs=12
cascade_candidate_change_fraction=0.010000
cascade_candidate_stagnation_epochs=12
cascade_max_out_epochs=150
cascade_min_out_epochs=50
cascade_max_cand_epochs=150
cascade_min_cand_epochs=50
cascade_num_candidate_groups=2
bit_fail_limit=3.49999999999999977796e-01
cascade_candidate_limit=1.00000000000000000000e+03
cascade_weight_multiplier=4.00000000000000022204e-01
cascade_activation_functions_count=10
cascade_activation_functions=3 5 7 8 10 11 14 15 16 17 
cascade_activation_steepnesses_count=4
cascade_activation_steepnesses=2.50000000000000000000e-01 5.00000000000000000000e-01 7.50000000000000000000e-01 1.00000000000000000000e+00 
layer_sizes=5 5 2 
scale_included=0
neurons (num_inputs, activation_function, activation_steepness)=(0, 0, 0.00000000000000000000e+00) (0, 0, 0.00000000000000000000e+00) (0, 0, 0.00000000000000000000e+00) (0, 0, 0.00000000000000000000e+00) (0, 0, 0.00000000000000000000e+00) (5, 4, 5.00000000000000000000e-01) (5, 4, 5.00000000000000000000e-01) (5, 4, 5.00000000000000000000e-01) (5, 4, 5.00000000000000000000e-01) (0, 0, 0.00000000000000000000e+00) (5, 6, 5.00000000000000000000e-01) (0, 6, 0.00000000000000000000e+00) 
connections (connected_to_neuron, weight)=(0, 3.11196112253896739475e+00) (1, 3.02830706902973201267e+00) (2, 3.08107581355802562229e+00) (3, 3.11627019562952067844e+00) (4, 3.03250048675767924777e+00) (0, 3.09738953032724406711e+00) (1, 3.20662472018234279147e+00) (2, 3.20003648468486812106e+00) (3, 3.18685569235317256442e+00) (4, 3.05217493691675212375e+00) (0, 1.19245438743987763885e+00) (1, 1.08279720787564004425e+00) (2, 1.07459859643736566071e+00) (3, 1.10014248360553468231e+00) (4, 1.18206941057601655487e+00) (0, 3.10488097735874202243e+00) (1, 3.02505723753206279270e+00) (2, 3.11085372784368541232e+00) (3, 3.14523478218547847263e+00) (4, 3.08008717366687800876e+00) (5, 3.12629859515659358493e+00) (6, 3.17809714743129756442e+00) (7, 3.09803583839170482150e+00) (8, 3.15112230547897365085e+00) (9, 3.09776347496740367404e+00) 
