FANN_FLO_2.1
num_layers=3
learning_rate=0.700000
connection_rate=1.000000
network_type=0
learning_momentum=0.000000
training_algorithm=2
train_error_function=1
train_stop_function=0
cascade_output_change_fraction=0.010000
quickprop_decay=-0.000100
quickprop_mu=1.750000
rprop_increase_factor=1.200000
rprop_decrease_factor=0.500000
rprop_delta_min=0.000000
rprop_delta_max=50.000000
rprop_delta_zero=0.100000
cascade_output_stagnation_epochs=12
cascade_candidate_change_fraction=0.010000
cascade_candidate_stagnation_epochs=12
cascade_max_out_epochs=150
cascade_min_out_epochs=50
cascade_max_cand_epochs=150
cascade_min_cand_epochs=50
cascade_num_candidate_groups=2
bit_fail_limit=3.49999999999999977796e-01
cascade_candidate_limit=1.00000000000000000000e+03
cascade_weight_multiplier=4.00000000000000022204e-01
cascade_activation_functions_count=10
cascade_activation_functions=3 5 7 8 10 11 14 15 16 17 
cascade_activation_steepnesses_count=4
cascade_activation_steepnesses=2.50000000000000000000e-01 5.00000000000000000000e-01 7.50000000000000000000e-01 1.00000000000000000000e+00 
layer_sizes=5 5 2 
scale_included=0
neurons (num_inputs, activation_function, activation_steepness)=(0, 0, 0.00000000000000000000e+00) (0, 0, 0.00000000000000000000e+00) (0, 0, 0.00000000000000000000e+00) (0, 0, 0.00000000000000000000e+00) (0, 0, 0.00000000000000000000e+00) (5, 4, 5.00000000000000000000e-01) (5, 4, 5.00000000000000000000e-01) (5, 4, 5.00000000000000000000e-01) (5, 4, 5.00000000000000000000e-01) (0, 0, 0.00000000000000000000e+00) (5, 5, 5.00000000000000000000e-01) (0, 5, 0.00000000000000000000e+00) 
connections (connected_to_neuron, weight)=(0, 8.58968577236318608925e+00) (1, 1.21770205843024115211e+00) (2, 7.58345574526592791642e-01) (3, -9.43747920414693020064e+00) (4, -1.23572407779688919760e+00) (0, 8.45449468376003743231e+00) (1, -6.78967641201815963470e-01) (2, -5.32692910560810806153e-01) (3, -8.36753839350620687298e+00) (4, -9.69938792443743702520e-01) (0, 9.13919223443089379089e+00) (1, -1.17875307244916927019e+00) (2, -9.04960685000098297159e-01) (3, -7.75943807053700407295e+00) (4, -1.21810738979717569919e+00) (0, 8.51596439317214581877e+00) (1, -7.63141992603814101059e-01) (2, -5.88972998648243373232e-01) (3, -8.52919252618393919363e+00) (4, -8.33063801823182847883e-01) (5, 7.09053738632394328079e+01) (6, 1.12800415637922402112e+01) (7, 1.02768752439841399848e+01) (8, 2.13599269588881917059e+01) (9, -3.22378861881062519501e+01) 
